# PR2かき込む前
#f(147.98 68.07 39.4913 94.3192 -113.131 -232.831 -107.884 112.417 3.98499 15.8311 -87.7497 -47.038 -8.9539 -20.6977 529.413 10.1227 52.194)

# fetchかき込む前
#f(181.711 -55.6733 26.0665 87.6613 95.0623 -30.3583 66.8128 -0.27973 -0.249261 22.5636)